{
  "type": "LSTM",
  "options": {
    "inputSize": 26,
    "inputRange": 26,
    "hiddenLayers": [
      3
    ],
    "outputSize": 26,
    "decayRate": 0.999,
    "smoothEps": 1e-8,
    "regc": 0.000001,
    "clipval": 5,
    "maxPredictionLength": 100,
    "dataFormatter": {
      "values": [
        "A skeleton walks into a bar and orders a beer and a mop",
        1,
        "salooom",
        "0.529"
      ],
      "indexTable": {
        "0": 18,
        "1": 17,
        "2": 21,
        "5": 20,
        "9": 22,
        "A": 0,
        " ": 1,
        "s": 2,
        "k": 3,
        "e": 4,
        "l": 5,
        "t": 6,
        "o": 7,
        "n": 8,
        "w": 9,
        "a": 10,
        "i": 11,
        "b": 12,
        "r": 13,
        "d": 14,
        "m": 15,
        "p": 16,
        ".": 19,
        "stop-input": 23,
        "start-output": 24,
        "unrecognized": 25
      },
      "characterTable": {
        "0": "A",
        "1": " ",
        "2": "s",
        "3": "k",
        "4": "e",
        "5": "l",
        "6": "t",
        "7": "o",
        "8": "n",
        "9": "w",
        "10": "a",
        "11": "i",
        "12": "b",
        "13": "r",
        "14": "d",
        "15": "m",
        "16": "p",
        "17": 1,
        "18": "0",
        "19": ".",
        "20": "5",
        "21": "2",
        "22": "9",
        "23": null,
        "24": null,
        "25": null
      },
      "characters": [
        "A",
        " ",
        "s",
        "k",
        "e",
        "l",
        "t",
        "o",
        "n",
        "w",
        "a",
        "i",
        "b",
        "r",
        "d",
        "m",
        "p",
        1,
        "0",
        ".",
        "5",
        "2",
        "9",
        "stop-input",
        "start-output",
        "unrecognized"
      ],
      "specialIndexes": [
        23,
        24,
        25
      ]
    }
  },
  "input": {
    "rows": 27,
    "columns": 26,
    "weights": {
      "0": 0.4565662741661072,
      "1": -0.55195152759552,
      "2": -0.4108429253101349,
      "3": -0.311767041683197,
      "4": -1.6688343286514282,
      "5": 0.2517147958278656,
      "6": 0.2704325318336487,
      "7": 0.4219028949737549,
      "8": 1.0238358974456787,
      "9": -0.529465913772583,
      "10": -0.17933060228824615,
      "11": 0.4769528806209564,
      "12": 0.14555539190769196,
      "13": 0.04918606951832771,
      "14": -1.5330572128295898,
      "15": 0.5241003036499023,
      "16": 0.21868988871574402,
      "17": 0.12406185269355774,
      "18": 0.06639403104782104,
      "19": -0.16548140347003937,
      "20": -0.6156913042068481,
      "21": -0.019652176648378372,
      "22": -0.2509705722332001,
      "23": -0.4390127956867218,
      "24": -0.8421967625617981,
      "25": -0.5532667636871338,
      "26": -0.22899699211120605,
      "27": 4.365707874298096,
      "28": 2.3197014331817627,
      "29": -1.3397014141082764,
      "30": -2.5542030334472656,
      "31": 1.5960965156555176,
      "32": 0.4334157705307007,
      "33": 0.22850945591926575,
      "34": -2.875836133956909,
      "35": 0.780960738658905,
      "36": 0.8354828357696533,
      "37": 1.893966794013977,
      "38": 1.6156060695648193,
      "39": -1.1473935842514038,
      "40": -3.2465434074401855,
      "41": 1.0181453227996826,
      "42": -0.02332344837486744,
      "43": 2.2050201892852783,
      "44": -1.2001852989196777,
      "45": -0.2248775064945221,
      "46": 2.51705265045166,
      "47": 1.1760538816452026,
      "48": -1.3417420387268066,
      "49": 1.8378167152404785,
      "50": 2.352569580078125,
      "51": -1.7344902753829956,
      "52": 1.6891684532165527,
      "53": -15.920716285705566,
      "54": 2.94486141204834,
      "55": -0.4450118839740753,
      "56": -9.98324203491211,
      "57": -0.4475228190422058,
      "58": -0.8488665819168091,
      "59": -3.6349539756774902,
      "60": 2.799851894378662,
      "61": 2.404144525527954,
      "62": 5.523747444152832,
      "63": 2.2966582775115967,
      "64": -0.909440279006958,
      "65": 1.1857554912567139,
      "66": -14.434739112854004,
      "67": -0.35252413153648376,
      "68": -0.8511788249015808,
      "69": 0.8487225770950317,
      "70": 1.3847359418869019,
      "71": -0.12444678694009781,
      "72": 4.46843957901001,
      "73": 1.7688127756118774,
      "74": 2.694364547729492,
      "75": -6.127558708190918,
      "76": -2.389777898788452,
      "77": -0.07926172763109207,
      "78": 0.32815080881118774,
      "79": -0.21940383315086365,
      "80": -0.03401583060622215,
      "81": -0.028975125402212143,
      "82": 0.004140345845371485,
      "83": 0.26149678230285645,
      "84": 0.9930068850517273,
      "85": -0.5687834620475769,
      "86": 3.0424439907073975,
      "87": 0.6802924275398254,
      "88": 1.9319040775299072,
      "89": 1.2249747514724731,
      "90": 1.5104225873947144,
      "91": 1.1382255554199219,
      "92": -4.1748199462890625,
      "93": 2.140864372253418,
      "94": 0.2201734185218811,
      "95": 0.2424912005662918,
      "96": -1.0072829723358154,
      "97": 1.0040122270584106,
      "98": 1.9032303094863892,
      "99": 1.5055345296859741,
      "100": 0.03483150526881218,
      "101": -0.7703708410263062,
      "102": -1.478389024734497,
      "103": 1.3584548234939575,
      "104": -0.7226269841194153,
      "105": -0.41389942169189453,
      "106": 0.1915750503540039,
      "107": -0.9626858234405518,
      "108": 2.0345027446746826,
      "109": 0.4204536974430084,
      "110": -0.5938423871994019,
      "111": -1.3802225589752197,
      "112": 0.7943235039710999,
      "113": -1.3872319459915161,
      "114": 1.051820993423462,
      "115": 1.6609975099563599,
      "116": 0.4422999918460846,
      "117": 1.2319777011871338,
      "118": -3.0918467044830322,
      "119": 0.28904420137405396,
      "120": -2.331697940826416,
      "121": 0.07636715471744537,
      "122": 0.024814002215862274,
      "123": 0.3152875006198883,
      "124": 0.46667489409446716,
      "125": 2.185767889022827,
      "126": -1.4730955362319946,
      "127": -0.7053587436676025,
      "128": -1.682429552078247,
      "129": 0.2514047920703888,
      "130": -1.3177775144577026,
      "131": 2.046299457550049,
      "132": 3.0628936290740967,
      "133": -0.6213167309761047,
      "134": 5.0806450843811035,
      "135": 2.429966688156128,
      "136": 0.8826186656951904,
      "137": -4.620258808135986,
      "138": -3.8544936180114746,
      "139": 1.4823426008224487,
      "140": -1.832311749458313,
      "141": 1.0505918264389038,
      "142": -2.4312984943389893,
      "143": -1.1830779314041138,
      "144": 0.44062647223472595,
      "145": -1.881779670715332,
      "146": -1.8462201356887817,
      "147": 1.5700781345367432,
      "148": 1.0848398208618164,
      "149": -1.7136411666870117,
      "150": 2.2815420627593994,
      "151": 1.6133836507797241,
      "152": 1.520129919052124,
      "153": 3.0588459968566895,
      "154": 0.8505852222442627,
      "155": 0.31273290514945984,
      "156": 0.44551345705986023,
      "157": 2.0776610374450684,
      "158": -2.2474236488342285,
      "159": -1.617212176322937,
      "160": -1.1063483953475952,
      "161": 2.2629096508026123,
      "162": 0.6020392179489136,
      "163": -0.11203218251466751,
      "164": 6.33989953994751,
      "165": -0.23885057866573334,
      "166": -4.5749735832214355,
      "167": -5.153298854827881,
      "168": 1.4426528215408325,
      "169": 1.3985249996185303,
      "170": -3.4990792274475098,
      "171": 0.5288429260253906,
      "172": 4.15082311630249,
      "173": -1.320428729057312,
      "174": 1.9829272031784058,
      "175": 1.6957173347473145,
      "176": -3.1359896659851074,
      "177": -0.5447708964347839,
      "178": -2.2484374046325684,
      "179": 5.431103706359863,
      "180": -0.8025221824645996,
      "181": 2.2486748695373535,
      "182": 1.1026562452316284,
      "183": 1.1569606065750122,
      "184": -0.7770262956619263,
      "185": 0.5197240114212036,
      "186": -3.116440534591675,
      "187": -0.5266483426094055,
      "188": 1.3610888719558716,
      "189": 0.8083345293998718,
      "190": -2.5346131324768066,
      "191": -1.1426095962524414,
      "192": 0.18202243745326996,
      "193": 1.5327949523925781,
      "194": 0.5555148720741272,
      "195": -1.896300196647644,
      "196": 0.025752827525138855,
      "197": 0.9944160580635071,
      "198": 1.2920175790786743,
      "199": 0.796084463596344,
      "200": -0.30130547285079956,
      "201": -0.08737484365701675,
      "202": -0.39446350932121277,
      "203": -0.873172402381897,
      "204": -0.7111033797264099,
      "205": 0.32424330711364746,
      "206": 0.7548038363456726,
      "207": -0.914095401763916,
      "208": 2.2907042503356934,
      "209": -4.853420257568359,
      "210": -1.721843957901001,
      "211": -0.7523306608200073,
      "212": -1.0620261430740356,
      "213": -0.10336422920227051,
      "214": -0.29157528281211853,
      "215": -0.5554288029670715,
      "216": 0.357111394405365,
      "217": 0.15291914343833923,
      "218": 1.908808946609497,
      "219": 0.4474855363368988,
      "220": -0.007880992256104946,
      "221": -0.479638010263443,
      "222": 1.3096133470535278,
      "223": 0.8183286786079407,
      "224": -0.08919968456029892,
      "225": 0.9738805294036865,
      "226": 0.5538666844367981,
      "227": -0.6949138641357422,
      "228": 0.5501587986946106,
      "229": -0.9290204048156738,
      "230": 0.579282283782959,
      "231": -0.7373552918434143,
      "232": -1.5248225927352905,
      "233": -0.5738384127616882,
      "234": -0.6116150617599487,
      "235": -2.0493202209472656,
      "236": 1.3496586084365845,
      "237": -0.4614134430885315,
      "238": -0.5411421060562134,
      "239": -0.7306560277938843,
      "240": 0.03124772384762764,
      "241": 0.8038845658302307,
      "242": -3.2208845615386963,
      "243": 0.877825140953064,
      "244": -0.3177543878555298,
      "245": 0.25853419303894043,
      "246": 1.0258678197860718,
      "247": -0.7944456934928894,
      "248": -0.1990053504705429,
      "249": 0.19316796958446503,
      "250": -0.7233299016952515,
      "251": 1.6447819471359253,
      "252": -0.5099518299102783,
      "253": -1.1489444971084595,
      "254": 2.1904807090759277,
      "255": 0.13850493729114532,
      "256": -1.6165882349014282,
      "257": -2.0577340126037598,
      "258": 1.4827028512954712,
      "259": -2.147895574569702,
      "260": 2.821169853210449,
      "261": -2.4137887954711914,
      "262": 0.4144856035709381,
      "263": -1.6897802352905273,
      "264": -1.2536256313323975,
      "265": -0.32545170187950134,
      "266": 2.310824394226074,
      "267": -2.9459328651428223,
      "268": 5.515030860900879,
      "269": 3.3633341789245605,
      "270": 2.3323605060577393,
      "271": 4.811768531799316,
      "272": 1.1638588905334473,
      "273": 2.1400270462036133,
      "274": -8.195327758789062,
      "275": 4.228198528289795,
      "276": -4.193037509918213,
      "277": 2.6911096572875977,
      "278": -1.4257822036743164,
      "279": -2.3873040676116943,
      "280": 5.584744453430176,
      "281": 5.332944393157959,
      "282": 0.6165800094604492,
      "283": -1.5507893562316895,
      "284": -2.4804413318634033,
      "285": 0.25886064767837524,
      "286": -0.4814462661743164,
      "287": 1.1904301643371582,
      "288": 1.3511935472488403,
      "289": -0.9508773684501648,
      "290": 6.605354309082031,
      "291": -1.0479315519332886,
      "292": -0.7963457107543945,
      "293": -4.048231601715088,
      "294": -3.910198450088501,
      "295": -3.638545036315918,
      "296": -1.5852710008621216,
      "297": 2.190744638442993,
      "298": -1.6059762239456177,
      "299": 0.7902779579162598,
      "300": -3.029711961746216,
      "301": -2.0164268016815186,
      "302": -3.2222495079040527,
      "303": -0.09553412348031998,
      "304": 0.08302531391382217,
      "305": 0.5046918988227844,
      "306": 0.5827667713165283,
      "307": 2.3868587017059326,
      "308": 0.3728337585926056,
      "309": -1.373216986656189,
      "310": 0.10588742047548294,
      "311": -1.6268548965454102,
      "312": -0.6391375660896301,
      "313": -1.6315685510635376,
      "314": 3.4117918014526367,
      "315": -0.5017765760421753,
      "316": -1.9292207956314087,
      "317": 2.509044885635376,
      "318": -2.4488420486450195,
      "319": -1.4660059213638306,
      "320": -3.162039279937744,
      "321": -0.6130949854850769,
      "322": -2.64217472076416,
      "323": -0.8483232855796814,
      "324": 0.9926946759223938,
      "325": 2.9487104415893555,
      "326": -3.0488407611846924,
      "327": 6.604049205780029,
      "328": -0.44443997740745544,
      "329": 1.4088950157165527,
      "330": 2.1229658126831055,
      "331": 0.9050968289375305,
      "332": 0.6262202262878418,
      "333": -2.138552665710449,
      "334": -3.4613049030303955,
      "335": 0.015090079046785831,
      "336": 3.5827534198760986,
      "337": -0.06452751904726028,
      "338": -0.12125485390424728,
      "339": -11.91439437866211,
      "340": -3.145998001098633,
      "341": 1.671725869178772,
      "342": 1.3624298572540283,
      "343": -6.357645034790039,
      "344": 0.8925926089286804,
      "345": -6.60423469543457,
      "346": -0.8445544242858887,
      "347": -0.256488561630249,
      "348": 7.060103893280029,
      "349": 5.720725059509277,
      "350": -0.7620674967765808,
      "351": 7.739488124847412,
      "352": -9.672731399536133,
      "353": 0.529409646987915,
      "354": 0.5834416151046753,
      "355": 2.118133783340454,
      "356": 3.5393364429473877,
      "357": 0.866951584815979,
      "358": 3.849921941757202,
      "359": 6.594440460205078,
      "360": 2.319216728210449,
      "361": 1.1520483493804932,
      "362": -2.216975688934326,
      "363": -0.5217795968055725,
      "364": -0.8881940245628357,
      "365": -4.763742923736572,
      "366": 3.210951805114746,
      "367": -1.1440094709396362,
      "368": -5.699524879455566,
      "369": 1.1364341974258423,
      "370": -0.7474774122238159,
      "371": 2.426213502883911,
      "372": -4.257589340209961,
      "373": -1.4360833168029785,
      "374": 1.1005480289459229,
      "375": 3.678426742553711,
      "376": 2.9180471897125244,
      "377": 0.21669438481330872,
      "378": 2.4963130950927734,
      "379": -2.238870859146118,
      "380": -1.9038660526275635,
      "381": 1.8833072185516357,
      "382": -2.316084623336792,
      "383": 1.2610663175582886,
      "384": 2.4088809490203857,
      "385": 2.0618035793304443,
      "386": -0.5198398232460022,
      "387": -4.415428161621094,
      "388": 3.8709399700164795,
      "389": -5.26775598526001,
      "390": -2.7425119876861572,
      "391": -5.684966087341309,
      "392": 4.082903861999512,
      "393": 0.7857182025909424,
      "394": -4.264867305755615,
      "395": 1.8582196235656738,
      "396": 1.7356042861938477,
      "397": 0.527129054069519,
      "398": -2.992171287536621,
      "399": 0.4221387803554535,
      "400": -1.90559720993042,
      "401": 0.6490013599395752,
      "402": 2.204712152481079,
      "403": -0.14796283841133118,
      "404": -3.37618350982666,
      "405": 0.27117374539375305,
      "406": 2.177419900894165,
      "407": 1.2860510349273682,
      "408": -0.8673933148384094,
      "409": 2.0302767753601074,
      "410": 2.401702642440796,
      "411": 1.3956208229064941,
      "412": 0.5693278312683105,
      "413": -1.1887595653533936,
      "414": 7.308797836303711,
      "415": -0.18391798436641693,
      "416": -2.034479856491089,
      "417": 1.1068615913391113,
      "418": 1.955168604850769,
      "419": 0.9690199494361877,
      "420": 0.702933669090271,
      "421": -2.837693929672241,
      "422": 0.4254102110862732,
      "423": -0.7411704659461975,
      "424": -2.0546605587005615,
      "425": 0.06579161435365677,
      "426": -0.38748061656951904,
      "427": -0.1429487019777298,
      "428": 0.49172431230545044,
      "429": 1.6550277471542358,
      "430": -0.4176613390445709,
      "431": 2.451798677444458,
      "432": -0.32793623208999634,
      "433": 2.078878879547119,
      "434": 0.7287434935569763,
      "435": 0.28445401787757874,
      "436": 1.0131174325942993,
      "437": -4.157839775085449,
      "438": -1.9361296892166138,
      "439": -2.105125665664673,
      "440": 5.216131210327148,
      "441": 1.328827142715454,
      "442": 1.849678635597229,
      "443": 0.6985468864440918,
      "444": -0.32595229148864746,
      "445": -0.12097293883562088,
      "446": -5.96437931060791,
      "447": -3.5983362197875977,
      "448": -0.7601876258850098,
      "449": 2.81368350982666,
      "450": -0.8644427061080933,
      "451": -0.961669921875,
      "452": 1.098976492881775,
      "453": 3.5118374824523926,
      "454": 1.8454447984695435,
      "455": -4.789328575134277,
      "456": 3.035782814025879,
      "457": 0.17728972434997559,
      "458": 0.163029283285141,
      "459": 2.2118401527404785,
      "460": -1.8510290384292603,
      "461": 4.797446250915527,
      "462": -2.3649239540100098,
      "463": -2.1687941551208496,
      "464": 0.0659252479672432,
      "465": -3.295102834701538,
      "466": 1.4630234241485596,
      "467": -1.3584908246994019,
      "468": 0.006246276665478945,
      "469": -0.07969844341278076,
      "470": 0.032287001609802246,
      "471": -0.029277106747031212,
      "472": -0.06796001642942429,
      "473": -0.0643986240029335,
      "474": 0.06662058085203171,
      "475": -0.01544666662812233,
      "476": -0.042932167649269104,
      "477": -0.02893834002315998,
      "478": -0.0692734494805336,
      "479": 0.06843995302915573,
      "480": -0.0014234499540179968,
      "481": -0.021341200917959213,
      "482": -0.04914996773004532,
      "483": -0.043317172676324844,
      "484": -0.035985760390758514,
      "485": 0.054536182433366776,
      "486": -0.06440835446119308,
      "487": -0.0166814923286438,
      "488": -0.03593161329627037,
      "489": 0.0507962591946125,
      "490": -0.057323478162288666,
      "491": 0.0719086304306984,
      "492": -0.0512002557516098,
      "493": -0.06781958043575287,
      "494": 7.578652381896973,
      "495": 4.824936389923096,
      "496": 1.7058308124542236,
      "497": -5.502018451690674,
      "498": -3.5948221683502197,
      "499": 7.344084739685059,
      "500": -1.6867305040359497,
      "501": -2.289738655090332,
      "502": 3.160856008529663,
      "503": 2.962165355682373,
      "504": -1.2057716846466064,
      "505": -4.161721706390381,
      "506": 2.120820999145508,
      "507": 2.0904183387756348,
      "508": -5.294938564300537,
      "509": 6.131786346435547,
      "510": -2.028461217880249,
      "511": 0.5360084772109985,
      "512": 0.3906378746032715,
      "513": 0.22520367801189423,
      "514": 4.032219886779785,
      "515": 0.4795827269554138,
      "516": -1.5571763515472412,
      "517": 8.261637687683105,
      "518": 0.6967772841453552,
      "519": -5.0753350257873535,
      "520": 3.7130508422851562,
      "521": 4.973099708557129,
      "522": -1.489924669265747,
      "523": -6.121245384216309,
      "524": -0.23734012246131897,
      "525": 4.681720733642578,
      "526": -1.2243863344192505,
      "527": -3.1635444164276123,
      "528": 3.65852427482605,
      "529": -0.9058184027671814,
      "530": -3.9748165607452393,
      "531": -4.930187702178955,
      "532": 0.1931077092885971,
      "533": 2.3504836559295654,
      "534": -6.3382792472839355,
      "535": 5.782321453094482,
      "536": 2.2740590572357178,
      "537": -2.4611947536468506,
      "538": 2.4185631275177,
      "539": 0.8886982798576355,
      "540": -2.0959184169769287,
      "541": 2.3808553218841553,
      "542": -3.03367280960083,
      "543": 10.902806282043457,
      "544": -0.2598634660243988,
      "545": -0.9476135969161987,
      "546": 6.0337090492248535,
      "547": -0.9185339212417603,
      "548": 1.1692605018615723,
      "549": -3.7457311153411865,
      "550": -2.553342342376709,
      "551": 1.3238916397094727,
      "552": -0.7158976197242737,
      "553": -2.326763868331909,
      "554": 2.291952610015869,
      "555": 1.4806889295578003,
      "556": -0.28563591837882996,
      "557": -1.1057847738265991,
      "558": 0.6726794242858887,
      "559": -0.6329262852668762,
      "560": -4.890628814697266,
      "561": 3.9659578800201416,
      "562": -1.3164517879486084,
      "563": -0.7249870896339417,
      "564": 0.43436112999916077,
      "565": -0.848498523235321,
      "566": 2.0153958797454834,
      "567": -0.2803856432437897,
      "568": -1.2655695676803589,
      "569": 6.457261562347412,
      "570": 0.35874632000923157,
      "571": -4.875178813934326,
      "572": 4.314443588256836,
      "573": -0.8916189670562744,
      "574": 1.7280510663986206,
      "575": -1.9340883493423462,
      "576": -1.5140955448150635,
      "577": 0.8504329919815063,
      "578": -2.5785160064697266,
      "579": -1.6279438734054565,
      "580": -0.9322087168693542,
      "581": 0.924298107624054,
      "582": -0.470391184091568,
      "583": 0.5313034057617188,
      "584": 0.7514481544494629,
      "585": 0.4311203062534332,
      "586": -1.4046214818954468,
      "587": 3.2121424674987793,
      "588": -1.5704047679901123,
      "589": -1.5403125286102295,
      "590": -1.8622263669967651,
      "591": 0.5383968353271484,
      "592": 1.1184439659118652,
      "593": -0.22405576705932617,
      "594": -0.6965202689170837,
      "595": 2.393343925476074,
      "596": 0.9704710245132446,
      "597": -2.4973669052124023,
      "598": 1.3461110591888428,
      "599": 11.184185028076172,
      "600": 7.383530616760254,
      "601": -0.8055455684661865,
      "602": 0.9837561249732971,
      "603": 0.13677877187728882,
      "604": -0.4302124083042145,
      "605": -3.3046469688415527,
      "606": -5.404335021972656,
      "607": 2.7740187644958496,
      "608": -3.344085454940796,
      "609": -2.3943638801574707,
      "610": -1.917102575302124,
      "611": 2.287003517150879,
      "612": -3.8278112411499023,
      "613": 3.4101951122283936,
      "614": -1.474545955657959,
      "615": 1.3980149030685425,
      "616": -1.1945420503616333,
      "617": 0.3832907974720001,
      "618": 3.512819528579712,
      "619": 0.35553357005119324,
      "620": -2.329164743423462,
      "621": 4.176882266998291,
      "622": 6.003786087036133,
      "623": 1.2353254556655884,
      "624": 0.777511477470398,
      "625": 0.4872901439666748,
      "626": 2.353823661804199,
      "627": 1.151063323020935,
      "628": -0.5867666006088257,
      "629": -2.2919251918792725,
      "630": -0.05001417547464371,
      "631": -0.7725113034248352,
      "632": -1.2388306856155396,
      "633": 0.9651175737380981,
      "634": -1.1861753463745117,
      "635": -1.4640401601791382,
      "636": -0.9985684752464294,
      "637": 2.012946128845215,
      "638": -2.272979497909546,
      "639": 4.1521196365356445,
      "640": -0.38222095370292664,
      "641": 1.4768301248550415,
      "642": 0.9604248404502869,
      "643": 0.8239933848381042,
      "644": 1.7254555225372314,
      "645": -4.703677177429199,
      "646": -0.9795519113540649,
      "647": -0.2256544828414917,
      "648": 2.7600650787353516,
      "649": 1.6417804956436157,
      "650": 2.5636937618255615,
      "651": 8.508325576782227,
      "652": 4.199540138244629,
      "653": -1.7447173595428467,
      "654": -0.9142046570777893,
      "655": 0.9158897995948792,
      "656": 0.40844014286994934,
      "657": -1.256371021270752,
      "658": -1.4880974292755127,
      "659": 4.484597206115723,
      "660": -2.765075445175171,
      "661": -1.3710821866989136,
      "662": -0.35835325717926025,
      "663": -0.4070095717906952,
      "664": -3.581326723098755,
      "665": 2.366874933242798,
      "666": -0.27830860018730164,
      "667": 0.7500311136245728,
      "668": -0.6974724531173706,
      "669": 0.8953138589859009,
      "670": 3.4268667697906494,
      "671": 1.0771174430847168,
      "672": -0.5771676898002625,
      "673": 3.3626646995544434,
      "674": 2.516878366470337,
      "675": -0.08816970139741898,
      "676": 0.05149461701512337,
      "677": -0.07215306907892227,
      "678": 0.046308133751153946,
      "679": -0.02553708851337433,
      "680": 0.01166446227580309,
      "681": -0.028547609224915504,
      "682": 0.04950158670544624,
      "683": 0.05543823540210724,
      "684": -0.075048066675663,
      "685": 0.01598622463643551,
      "686": -0.05189858004450798,
      "687": -0.043275799602270126,
      "688": -0.009593806229531765,
      "689": 0.07972998172044754,
      "690": 0.049715083092451096,
      "691": 0.01537918858230114,
      "692": -0.006160158663988113,
      "693": 0.03854093328118324,
      "694": -0.026755521073937416,
      "695": -0.009362002834677696,
      "696": 0.008052240125834942,
      "697": 0.06868433207273483,
      "698": 0.015173191204667091,
      "699": 0.057466618716716766,
      "700": 0.0038011488504707813,
      "701": -0.05416678264737129
    }
  },
  "hiddenLayers": [
    {
      "inputMatrix": {
        "rows": 3,
        "columns": 26,
        "weights": {
          "0": -0.4083245098590851,
          "1": -0.4746467173099518,
          "2": 0.10692348331212997,
          "3": 0.025884369388222694,
          "4": -0.7030810713768005,
          "5": 0.41085106134414673,
          "6": 0.1553647369146347,
          "7": -0.48879575729370117,
          "8": -1.7272319793701172,
          "9": 0.44850945472717285,
          "10": -1.2430492639541626,
          "11": -0.3834277093410492,
          "12": 1.0147209167480469,
          "13": 0.13701395690441132,
          "14": -0.2556995451450348,
          "15": 0.8125677704811096,
          "16": 0.946588933467865,
          "17": 0.6582603454589844,
          "18": 0.11879909783601761,
          "19": 1.2441904544830322,
          "20": 1.015270471572876,
          "21": 0.17125290632247925,
          "22": 1.3628464937210083,
          "23": 0.4300064742565155,
          "24": 2.1893882751464844,
          "25": 0.20910735428333282,
          "26": 1.0090433359146118,
          "27": 0.167474165558815,
          "28": 0.14582358300685883,
          "29": 0.8633056282997131,
          "30": 1.2361364364624023,
          "31": -0.6090148687362671,
          "32": 0.074806347489357,
          "33": 0.08317535370588303,
          "34": 0.14031939208507538,
          "35": 1.3509716987609863,
          "36": -0.3695337176322937,
          "37": -1.5639464855194092,
          "38": -2.1411149501800537,
          "39": 0.23134374618530273,
          "40": -1.580817699432373,
          "41": 0.0756031721830368,
          "42": -0.43149152398109436,
          "43": -0.35699716210365295,
          "44": -1.168923020362854,
          "45": -0.028215983882546425,
          "46": -0.19362623989582062,
          "47": -0.9723241329193115,
          "48": 0.8191710114479065,
          "49": 1.9829822778701782,
          "50": -0.5009613037109375,
          "51": -0.3004171848297119,
          "52": 0.00850989855825901,
          "53": 1.29349946975708,
          "54": -1.1527520418167114,
          "55": -0.16681934893131256,
          "56": -0.3480055034160614,
          "57": 1.259351134300232,
          "58": 0.8387662768363953,
          "59": 0.06400397419929504,
          "60": -0.380867600440979,
          "61": 0.009079468436539173,
          "62": -0.1771250069141388,
          "63": 0.9204478859901428,
          "64": 1.75895094871521,
          "65": -1.2035378217697144,
          "66": -0.23785142600536346,
          "67": -1.190788745880127,
          "68": 0.46777209639549255,
          "69": 1.116561770439148,
          "70": 0.8828890919685364,
          "71": -0.8054562211036682,
          "72": -0.09900525957345963,
          "73": 2.279996633529663,
          "74": 0.8606559634208679,
          "75": 0.5732194185256958,
          "76": -0.5153427124023438,
          "77": -1.287430763244629
        }
      },
      "inputHidden": {
        "rows": 3,
        "columns": 3,
        "weights": {
          "0": 7.18705940246582,
          "1": -1.5278414487838745,
          "2": 1.97475266456604,
          "3": 0.45485371351242065,
          "4": -5.6019134521484375,
          "5": 5.099085330963135,
          "6": 6.063178539276123,
          "7": 1.5246790647506714,
          "8": 3.5495924949645996
        }
      },
      "inputBias": {
        "rows": 3,
        "columns": 1,
        "weights": {
          "0": -0.509671688079834,
          "1": 3.185443639755249,
          "2": 0.8052794933319092
        }
      },
      "forgetMatrix": {
        "rows": 3,
        "columns": 26,
        "weights": {
          "0": -0.022253165021538734,
          "1": -0.9336756467819214,
          "2": -1.0595968961715698,
          "3": 1.0743882656097412,
          "4": 0.23180952668190002,
          "5": -0.34341269731521606,
          "6": 0.4915444254875183,
          "7": -0.44372424483299255,
          "8": 0.32272905111312866,
          "9": -2.474496841430664,
          "10": -0.45915457606315613,
          "11": 0.06129615753889084,
          "12": 0.4695854187011719,
          "13": -0.018688328564167023,
          "14": -1.0754873752593994,
          "15": 0.7411984205245972,
          "16": 1.5029548406600952,
          "17": -0.09525755047798157,
          "18": 0.9859626293182373,
          "19": 1.020016074180603,
          "20": -2.131452798843384,
          "21": -0.4878617823123932,
          "22": 1.049419641494751,
          "23": -0.3870004415512085,
          "24": 0.259051114320755,
          "25": 1.8841184377670288,
          "26": -0.720268189907074,
          "27": -1.7521640062332153,
          "28": 0.18472640216350555,
          "29": 0.16936296224594116,
          "30": 1.8032575845718384,
          "31": -0.5087193250656128,
          "32": -0.1244792640209198,
          "33": 0.5265856981277466,
          "34": 0.8553568720817566,
          "35": 3.061444044113159,
          "36": 0.5911170244216919,
          "37": -2.2521376609802246,
          "38": -0.6974495053291321,
          "39": 0.829935610294342,
          "40": -0.017868340015411377,
          "41": 0.26551780104637146,
          "42": -1.322837233543396,
          "43": -1.7513337135314941,
          "44": -2.1147282123565674,
          "45": 1.5123867988586426,
          "46": 0.820697546005249,
          "47": -0.3985976576805115,
          "48": 1.2361705303192139,
          "49": 0.6872919201850891,
          "50": 1.3448681831359863,
          "51": 2.384817600250244,
          "52": 0.03013785183429718,
          "53": -0.9449204802513123,
          "54": 0.4445212781429291,
          "55": -0.7087413668632507,
          "56": 0.2640030086040497,
          "57": 1.6143317222595215,
          "58": -1.0160455703735352,
          "59": -0.13249057531356812,
          "60": 0.14223136007785797,
          "61": -0.9223880767822266,
          "62": 0.2568564713001251,
          "63": -0.7300481796264648,
          "64": 0.4522598087787628,
          "65": 0.17078855633735657,
          "66": 0.47189298272132874,
          "67": -0.56764155626297,
          "68": -0.14559359848499298,
          "69": -0.6011959910392761,
          "70": -0.3403881788253784,
          "71": 0.17314472794532776,
          "72": -0.10500787198543549,
          "73": 0.9974633455276489,
          "74": 0.02774124965071678,
          "75": 0.5534483194351196,
          "76": -0.17001768946647644,
          "77": 0.01837293989956379
        }
      },
      "forgetHidden": {
        "rows": 3,
        "columns": 3,
        "weights": {
          "0": 2.7739930152893066,
          "1": 3.7502431869506836,
          "2": 3.745368003845215,
          "3": -5.909371852874756,
          "4": 5.079593658447266,
          "5": -6.760711193084717,
          "6": 8.361510276794434,
          "7": -1.5585671663284302,
          "8": 3.6862587928771973
        }
      },
      "forgetBias": {
        "rows": 3,
        "columns": 1,
        "weights": {
          "0": 0,
          "1": 0,
          "2": 0
        }
      },
      "outputMatrix": {
        "rows": 3,
        "columns": 26,
        "weights": {
          "0": 0.03225171938538551,
          "1": 0.3276126980781555,
          "2": 0.16360564529895782,
          "3": -0.46907857060432434,
          "4": 0.08738648146390915,
          "5": 0.25885578989982605,
          "6": -0.3665613532066345,
          "7": 0.43451106548309326,
          "8": -0.059713903814554214,
          "9": 0.14605142176151276,
          "10": -0.09157604724168777,
          "11": -0.4337178170681,
          "12": 0.46667715907096863,
          "13": 0.16856691241264343,
          "14": 0.17380297183990479,
          "15": 0.34710001945495605,
          "16": -0.06657460331916809,
          "17": -0.015023765154182911,
          "18": -0.30845895409584045,
          "19": 0.2874327003955841,
          "20": 0.11619964241981506,
          "21": 0.03789038956165314,
          "22": -0.2835776209831238,
          "23": 0.18763898313045502,
          "24": 0.23714792728424072,
          "25": 0.22459688782691956,
          "26": 0.18821580708026886,
          "27": -0.1271686553955078,
          "28": 0.344136506319046,
          "29": -0.8693814277648926,
          "30": -0.10987502336502075,
          "31": -0.2024698406457901,
          "32": 0.4184128940105438,
          "33": -0.5586227774620056,
          "34": -1.440143346786499,
          "35": -0.5463483333587646,
          "36": -0.18397743999958038,
          "37": 0.5711489915847778,
          "38": 0.711507260799408,
          "39": -0.19593340158462524,
          "40": 0.0298977829515934,
          "41": 1.974702000617981,
          "42": 0.17454607784748077,
          "43": -0.013967625796794891,
          "44": 0.013165656477212906,
          "45": 1.1383507251739502,
          "46": 1.114264726638794,
          "47": -0.1438966542482376,
          "48": -0.19823800027370453,
          "49": -0.29764991998672485,
          "50": 0.6321300268173218,
          "51": 0.10024657100439072,
          "52": 0.164571613073349,
          "53": 0.5787544250488281,
          "54": 0.5050404071807861,
          "55": -0.8679947257041931,
          "56": -0.1419358104467392,
          "57": 0.2496459186077118,
          "58": -0.08223755657672882,
          "59": 0.10020200908184052,
          "60": -0.6629666090011597,
          "61": -0.6871428489685059,
          "62": -0.8198973536491394,
          "63": -0.7856447696685791,
          "64": 0.854105532169342,
          "65": 0.47010672092437744,
          "66": -0.5507359504699707,
          "67": -0.27699559926986694,
          "68": 0.08828648179769516,
          "69": -0.15785273909568787,
          "70": 0.12427359819412231,
          "71": 1.773692011833191,
          "72": 0.19533227384090424,
          "73": 0.7631869912147522,
          "74": 0.705725371837616,
          "75": 0.03017144277691841,
          "76": -0.037161651998758316,
          "77": 0.1514700949192047
        }
      },
      "outputHidden": {
        "rows": 3,
        "columns": 3,
        "weights": {
          "0": 10.306280136108398,
          "1": -2.300419330596924,
          "2": 8.107185363769531,
          "3": -3.4195632934570312,
          "4": -7.7081427574157715,
          "5": 4.957365989685059,
          "6": 3.7200915813446045,
          "7": 4.364408493041992,
          "8": 3.9561431407928467
        }
      },
      "outputBias": {
        "rows": 3,
        "columns": 1,
        "weights": {
          "0": -1.632926344871521,
          "1": 1.3900007009506226,
          "2": -0.09097553789615631
        }
      },
      "cellActivationMatrix": {
        "rows": 3,
        "columns": 26,
        "weights": {
          "0": -0.3020814061164856,
          "1": -0.49222421646118164,
          "2": -0.9961013793945312,
          "3": -1.0895144939422607,
          "4": 0.14383162558078766,
          "5": 0.5929147601127625,
          "6": 0.60426926612854,
          "7": -0.37922024726867676,
          "8": 0.04616948589682579,
          "9": -1.138145923614502,
          "10": -0.20195451378822327,
          "11": 1.328371524810791,
          "12": 1.3252898454666138,
          "13": -0.5498143434524536,
          "14": -0.34982550144195557,
          "15": 0.9594426155090332,
          "16": 0.4360736608505249,
          "17": 0.25160732865333557,
          "18": -0.29692262411117554,
          "19": -0.8733788728713989,
          "20": -0.940876305103302,
          "21": -0.27951955795288086,
          "22": -1.0094026327133179,
          "23": -0.4551759958267212,
          "24": 0.18758782744407654,
          "25": -0.7089060544967651,
          "26": 0.4317270815372467,
          "27": -0.027408313006162643,
          "28": -1.6525108814239502,
          "29": -0.2318238615989685,
          "30": -0.8833763599395752,
          "31": -0.553654670715332,
          "32": -0.13263075053691864,
          "33": 1.5836588144302368,
          "34": 1.9611722230911255,
          "35": -1.6189318895339966,
          "36": -0.03861095756292343,
          "37": 0.5794665813446045,
          "38": 0.47174695134162903,
          "39": -0.42603403329849243,
          "40": -0.2820228636264801,
          "41": -1.45598566532135,
          "42": 0.3043273985385895,
          "43": -0.016110330820083618,
          "44": 0.4484921991825104,
          "45": -1.18619704246521,
          "46": -1.1764580011367798,
          "47": 1.3243225812911987,
          "48": -0.2649296820163727,
          "49": 0.20585408806800842,
          "50": -0.8339883089065552,
          "51": -0.24089927971363068,
          "52": -1.4264191389083862,
          "53": -0.5935634970664978,
          "54": -0.3062516450881958,
          "55": -0.3462351858615875,
          "56": 0.019058311358094215,
          "57": 1.4514455795288086,
          "58": 0.7428203821182251,
          "59": 0.547707200050354,
          "60": 0.06481637060642242,
          "61": -0.6060206294059753,
          "62": -0.45173296332359314,
          "63": 0.44229426980018616,
          "64": 1.6245101690292358,
          "65": -0.6191608905792236,
          "66": -0.7073373794555664,
          "67": -0.5583105683326721,
          "68": -0.5534980893135071,
          "69": 0.20897474884986877,
          "70": 0.12257908284664154,
          "71": -0.7604522705078125,
          "72": 0.2705569863319397,
          "73": 0.30457329750061035,
          "74": 0.9188100695610046,
          "75": 0.21803686022758484,
          "76": -0.6893018484115601,
          "77": 0.03764796257019043
        }
      },
      "cellActivationHidden": {
        "rows": 3,
        "columns": 3,
        "weights": {
          "0": 1.5644487142562866,
          "1": -0.05797639861702919,
          "2": 2.4232232570648193,
          "3": -2.1737680435180664,
          "4": -0.22823305428028107,
          "5": -2.139256715774536,
          "6": 3.3160130977630615,
          "7": 1.0074201822280884,
          "8": 3.829531192779541
        }
      },
      "cellActivationBias": {
        "rows": 3,
        "columns": 1,
        "weights": {
          "0": 0.7931169867515564,
          "1": 1.4000390768051147,
          "2": 1.1116853952407837
        }
      }
    }
  ],
  "outputConnector": {
    "rows": 27,
    "columns": 3,
    "weights": {
      "0": -14.844560623168945,
      "1": -6.25271463394165,
      "2": -7.936304569244385,
      "3": -8.877710342407227,
      "4": 0.39711982011795044,
      "5": -8.745809555053711,
      "6": 3.067500352859497,
      "7": -4.513483047485352,
      "8": 4.9665141105651855,
      "9": -4.717491626739502,
      "10": -0.17513391375541687,
      "11": -2.403381109237671,
      "12": 0.0567161850631237,
      "13": 7.943220138549805,
      "14": 7.323915958404541,
      "15": -6.441592216491699,
      "16": 2.4402008056640625,
      "17": 15.808052062988281,
      "18": -5.0697174072265625,
      "19": -8.200650215148926,
      "20": 4.232748508453369,
      "21": -3.0258727073669434,
      "22": -6.437142372131348,
      "23": 4.846306324005127,
      "24": 7.110206604003906,
      "25": 6.334240436553955,
      "26": 0.3106870949268341,
      "27": 3.100229263305664,
      "28": -7.662609577178955,
      "29": -2.8041722774505615,
      "30": 0.7929077744483948,
      "31": 14.95559310913086,
      "32": -4.116634368896484,
      "33": 0.3255743384361267,
      "34": 20.430452346801758,
      "35": 0.05135314539074898,
      "36": 5.815681457519531,
      "37": 8.777226448059082,
      "38": -2.5411953926086426,
      "39": 5.583932876586914,
      "40": 8.871099472045898,
      "41": -7.8154215812683105,
      "42": -4.310176849365234,
      "43": -7.05519437789917,
      "44": 4.929972171783447,
      "45": -0.5044143199920654,
      "46": -6.937254905700684,
      "47": 2.873055934906006,
      "48": 6.989164352416992,
      "49": 3.593984365463257,
      "50": -4.465476989746094,
      "51": 6.0499958992004395,
      "52": -3.129849433898926,
      "53": -9.336003303527832,
      "54": -4.924282550811768,
      "55": -0.7961216568946838,
      "56": -4.404773235321045,
      "57": -11.99785041809082,
      "58": -5.368479251861572,
      "59": -11.173495292663574,
      "60": -2.760599374771118,
      "61": -6.196897029876709,
      "62": -15.450974464416504,
      "63": -1.860776662826538,
      "64": 8.40604019165039,
      "65": -17.01646614074707,
      "66": -6.371561527252197,
      "67": 0.7290828824043274,
      "68": -18.9382381439209,
      "69": -1.4116908311843872,
      "70": -8.618006706237793,
      "71": -12.072522163391113,
      "72": 3.6584365367889404,
      "73": -7.015081882476807,
      "74": -12.897903442382812,
      "75": -4.187406539916992,
      "76": -11.093791961669922,
      "77": -5.701298713684082,
      "78": -4.971585273742676,
      "79": -0.7794433236122131,
      "80": -4.397700309753418
    }
  },
  "output": {
    "rows": 27,
    "columns": 1,
    "weights": {
      "0": -3.7370502948760986,
      "1": 3.0753815174102783,
      "2": -8.818144798278809,
      "3": 1.476741909980774,
      "4": -13.21821403503418,
      "5": -13.954915046691895,
      "6": -6.673665523529053,
      "7": -6.777843952178955,
      "8": -11.050047874450684,
      "9": -4.795231819152832,
      "10": -11.562962532043457,
      "11": -15.626500129699707,
      "12": -11.603226661682129,
      "13": -8.90179443359375,
      "14": -6.301588535308838,
      "15": -6.332827568054199,
      "16": -8.29960823059082,
      "17": -5.622250080108643,
      "18": -6.56643009185791,
      "19": -3.3323473930358887,
      "20": -2.775209426879883,
      "21": -6.537775993347168,
      "22": -3.378627300262451,
      "23": -2.7618279457092285,
      "24": -3.4094293117523193,
      "25": -2.8498153686523438,
      "26": -6.578065395355225
    }
  }
}