{
  "type": "LSTM",
  "options": {
    "inputSize": 25,
    "inputRange": 25,
    "hiddenLayers": [
      3
    ],
    "outputSize": 25,
    "decayRate": 0.999,
    "smoothEps": 1e-8,
    "regc": 0.000001,
    "clipval": 5,
    "maxPredictionLength": 100,
    "dataFormatter": {
      "values": [
        "A skeleton walks into a bar and orders a beer and a mop",
        1,
        "hi\n",
        "0.000"
      ],
      "indexTable": {
        "0": 20,
        "1": 17,
        "A": 0,
        " ": 1,
        "s": 2,
        "k": 3,
        "e": 4,
        "l": 5,
        "t": 6,
        "o": 7,
        "n": 8,
        "w": 9,
        "a": 10,
        "i": 11,
        "b": 12,
        "r": 13,
        "d": 14,
        "m": 15,
        "p": 16,
        "h": 18,
        "\n": 19,
        ".": 21,
        "stop-input": 22,
        "start-output": 23,
        "unrecognized": 24
      },
      "characterTable": {
        "0": "A",
        "1": " ",
        "2": "s",
        "3": "k",
        "4": "e",
        "5": "l",
        "6": "t",
        "7": "o",
        "8": "n",
        "9": "w",
        "10": "a",
        "11": "i",
        "12": "b",
        "13": "r",
        "14": "d",
        "15": "m",
        "16": "p",
        "17": 1,
        "18": "h",
        "19": "\n",
        "20": "0",
        "21": ".",
        "22": null,
        "23": null,
        "24": null
      },
      "characters": [
        "A",
        " ",
        "s",
        "k",
        "e",
        "l",
        "t",
        "o",
        "n",
        "w",
        "a",
        "i",
        "b",
        "r",
        "d",
        "m",
        "p",
        1,
        "h",
        "\n",
        "0",
        ".",
        "stop-input",
        "start-output",
        "unrecognized"
      ],
      "specialIndexes": [
        22,
        23,
        24
      ]
    }
  },
  "input": {
    "rows": 26,
    "columns": 25,
    "weights": {
      "0": -0.16024050116539001,
      "1": 1.6356970071792603,
      "2": -0.9666907787322998,
      "3": 1.3015148639678955,
      "4": -1.3784635066986084,
      "5": 2.984706163406372,
      "6": 1.5523011684417725,
      "7": 0.20669673383235931,
      "8": -0.34224116802215576,
      "9": 1.6967731714248657,
      "10": 0.14723354578018188,
      "11": 0.15693442523479462,
      "12": -5.828929424285889,
      "13": -0.8303196430206299,
      "14": -0.6453273296356201,
      "15": -1.05619215965271,
      "16": 1.2456437349319458,
      "17": 1.7152200937271118,
      "18": 2.271326780319214,
      "19": -0.6825300455093384,
      "20": -1.6480979919433594,
      "21": 3.3873510360717773,
      "22": 0.47957366704940796,
      "23": 0.7953484058380127,
      "24": 0.5095572471618652,
      "25": 2.834400177001953,
      "26": 1.8253891468048096,
      "27": -1.058237910270691,
      "28": 2.9932782649993896,
      "29": -6.805843830108643,
      "30": 0.9860596656799316,
      "31": -6.04878568649292,
      "32": -2.9056708812713623,
      "33": 14.041720390319824,
      "34": 0.1274893432855606,
      "35": -5.261586666107178,
      "36": -1.139068365097046,
      "37": -7.354835033416748,
      "38": 0.42196160554885864,
      "39": -6.713959693908691,
      "40": -3.0447769165039062,
      "41": 3.1567976474761963,
      "42": -3.332522392272949,
      "43": 7.372715473175049,
      "44": 4.539948463439941,
      "45": -2.016352415084839,
      "46": -0.30710893869400024,
      "47": -1.1520271301269531,
      "48": 7.492871284484863,
      "49": -0.8177071809768677,
      "50": -0.29559773206710815,
      "51": 10.384806632995605,
      "52": -4.512333869934082,
      "53": 0.29973191022872925,
      "54": -13.060400009155273,
      "55": -4.611375331878662,
      "56": -1.2922921180725098,
      "57": -0.48907536268234253,
      "58": -0.554128885269165,
      "59": 1.4975805282592773,
      "60": -3.1433277130126953,
      "61": -4.022472858428955,
      "62": 2.0227720737457275,
      "63": -12.036114692687988,
      "64": -2.682507038116455,
      "65": -4.411766529083252,
      "66": -1.04082453250885,
      "67": -4.653860569000244,
      "68": -7.24770975112915,
      "69": -0.1723400205373764,
      "70": 22.96708869934082,
      "71": -4.395715713500977,
      "72": -30.92289161682129,
      "73": 8.995750427246094,
      "74": 2.544200897216797,
      "75": -0.9017041921615601,
      "76": 5.98129415512085,
      "77": 0.3921753764152527,
      "78": 0.5150551795959473,
      "79": 4.124569892883301,
      "80": 4.541316032409668,
      "81": 4.741096019744873,
      "82": 1.4876861572265625,
      "83": 3.916412115097046,
      "84": 5.412245273590088,
      "85": 5.663013458251953,
      "86": -1.2371071577072144,
      "87": 1.279475212097168,
      "88": -3.575221538543701,
      "89": -2.512476921081543,
      "90": 1.1486783027648926,
      "91": 7.732757091522217,
      "92": -9.314480781555176,
      "93": 0.17089441418647766,
      "94": 1.1913738250732422,
      "95": -3.2859232425689697,
      "96": -4.333780765533447,
      "97": 3.698742389678955,
      "98": 3.738943338394165,
      "99": 2.797137498855591,
      "100": -3.16385817527771,
      "101": 4.573558807373047,
      "102": 4.539159774780273,
      "103": 2.25130558013916,
      "104": -1.51649010181427,
      "105": 2.7377583980560303,
      "106": -1.9740735292434692,
      "107": -0.8993110656738281,
      "108": 2.1811611652374268,
      "109": 4.203993797302246,
      "110": 2.225874423980713,
      "111": 0.7195568084716797,
      "112": -0.6441267728805542,
      "113": -0.04293133318424225,
      "114": -5.197169780731201,
      "115": -7.749032020568848,
      "116": -0.7907722592353821,
      "117": 1.3670413494110107,
      "118": -1.418358325958252,
      "119": -2.519564390182495,
      "120": 7.575022220611572,
      "121": 2.3242461681365967,
      "122": -0.8345453143119812,
      "123": -4.972171306610107,
      "124": -2.925426721572876,
      "125": 9.725953102111816,
      "126": 3.324871778488159,
      "127": 4.293055057525635,
      "128": 14.32607650756836,
      "129": -2.830183744430542,
      "130": -0.06536933034658432,
      "131": 6.405243873596191,
      "132": -9.355979919433594,
      "133": 6.921696662902832,
      "134": 2.4645471572875977,
      "135": -3.6995139122009277,
      "136": 3.856440544128418,
      "137": -5.762303829193115,
      "138": -1.6266905069351196,
      "139": 0.2972269356250763,
      "140": -3.3458993434906006,
      "141": -4.335103988647461,
      "142": -2.4945058822631836,
      "143": -10.833248138427734,
      "144": 2.2011725902557373,
      "145": -0.5295512676239014,
      "146": 3.2156026363372803,
      "147": -4.772204875946045,
      "148": -2.3567330837249756,
      "149": -9.683326721191406,
      "150": 0.7070178389549255,
      "151": 4.546567440032959,
      "152": -4.30649471282959,
      "153": -0.16452522575855255,
      "154": 3.3062400817871094,
      "155": 7.224808216094971,
      "156": -5.763823986053467,
      "157": -1.3790549039840698,
      "158": 15.683056831359863,
      "159": 8.847160339355469,
      "160": 1.7551385164260864,
      "161": 0.08042754232883453,
      "162": -1.0853153467178345,
      "163": 2.9557011127471924,
      "164": -5.691347599029541,
      "165": 9.370567321777344,
      "166": 3.756133794784546,
      "167": -0.4548626244068146,
      "168": 7.814949035644531,
      "169": -3.9587690830230713,
      "170": 8.129071235656738,
      "171": -0.41097715497016907,
      "172": -3.7344248294830322,
      "173": -2.9616003036499023,
      "174": -0.8498523235321045,
      "175": 2.8911757469177246,
      "176": 0.5389859676361084,
      "177": 4.9615020751953125,
      "178": 4.050126552581787,
      "179": -3.445340871810913,
      "180": 7.413491725921631,
      "181": -0.7123211622238159,
      "182": -5.939943313598633,
      "183": 2.774778366088867,
      "184": 5.968389511108398,
      "185": -2.357715606689453,
      "186": -0.10268715023994446,
      "187": -1.2487823963165283,
      "188": 9.794829368591309,
      "189": -7.5476250648498535,
      "190": 8.195457458496094,
      "191": 10.70428466796875,
      "192": -4.221974849700928,
      "193": 3.0601418018341064,
      "194": 1.3352221250534058,
      "195": 3.1968014240264893,
      "196": -4.930450916290283,
      "197": 2.2118752002716064,
      "198": -4.385733604431152,
      "199": 7.021310329437256,
      "200": -0.8260529637336731,
      "201": -8.023603439331055,
      "202": 4.152535438537598,
      "203": 0.4363417327404022,
      "204": -2.046973466873169,
      "205": -2.9056293964385986,
      "206": 7.784318923950195,
      "207": 3.0923848152160645,
      "208": 7.13232421875,
      "209": 2.736543893814087,
      "210": -5.772116184234619,
      "211": 0.7996946573257446,
      "212": -3.760756254196167,
      "213": 7.2489142417907715,
      "214": -0.5688562989234924,
      "215": 4.438412189483643,
      "216": -5.065149784088135,
      "217": 0.6436881422996521,
      "218": -2.030694007873535,
      "219": 0.26855331659317017,
      "220": 22.98790168762207,
      "221": 0.339272141456604,
      "222": 1.209227204322815,
      "223": 0.7004154324531555,
      "224": 2.4426138401031494,
      "225": 1.892982006072998,
      "226": -2.7827975749969482,
      "227": -3.9757885932922363,
      "228": 1.7599695920944214,
      "229": 2.15368914604187,
      "230": -1.5156354904174805,
      "231": 0.79450923204422,
      "232": 8.006372451782227,
      "233": 0.9382839798927307,
      "234": -7.774320125579834,
      "235": 5.851029396057129,
      "236": -5.460605144500732,
      "237": 15.117273330688477,
      "238": -5.549495220184326,
      "239": 11.98835277557373,
      "240": 1.3832144737243652,
      "241": 0.708786129951477,
      "242": -4.788659572601318,
      "243": -0.1506044864654541,
      "244": 4.792741775512695,
      "245": -9.45619010925293,
      "246": 4.19749641418457,
      "247": -1.0991854667663574,
      "248": -0.19068928062915802,
      "249": 5.440587997436523,
      "250": -6.5971360206604,
      "251": 1.283913254737854,
      "252": -0.9155302047729492,
      "253": -7.926563262939453,
      "254": 0.009790684096515179,
      "255": -0.4158147871494293,
      "256": -0.38497301936149597,
      "257": 6.03927755355835,
      "258": 8.58882999420166,
      "259": 1.0603290796279907,
      "260": -4.873464107513428,
      "261": -2.788512945175171,
      "262": 0.9973704814910889,
      "263": -1.4473785161972046,
      "264": -1.2022825479507446,
      "265": 0.1793876439332962,
      "266": -5.144450664520264,
      "267": -1.3623334169387817,
      "268": 0.9984681606292725,
      "269": 3.928114414215088,
      "270": -8.331572532653809,
      "271": 0.4460851550102234,
      "272": -3.7832674980163574,
      "273": 8.149412155151367,
      "274": 1.3192893266677856,
      "275": 0.6710559725761414,
      "276": -1.3639461994171143,
      "277": -4.20566987991333,
      "278": -1.111009120941162,
      "279": -6.44754695892334,
      "280": -0.35117626190185547,
      "281": -7.227299690246582,
      "282": 0.21100854873657227,
      "283": -1.3885846138000488,
      "284": -0.9530765414237976,
      "285": 0.013627244159579277,
      "286": 0.48281338810920715,
      "287": 18.760122299194336,
      "288": -2.19511342048645,
      "289": -1.5659658908843994,
      "290": 1.5531775951385498,
      "291": 2.783956527709961,
      "292": 7.571460723876953,
      "293": 2.5354549884796143,
      "294": -3.220792293548584,
      "295": 13.806574821472168,
      "296": -3.158806085586548,
      "297": -1.9543540477752686,
      "298": -0.30638885498046875,
      "299": 13.063985824584961,
      "300": -0.8018765449523926,
      "301": 9.654386520385742,
      "302": -1.475783109664917,
      "303": 0.5129922032356262,
      "304": -3.6801376342773438,
      "305": 8.45423698425293,
      "306": -4.2724480628967285,
      "307": -0.5457879900932312,
      "308": -2.3057379722595215,
      "309": -3.7245967388153076,
      "310": -2.896042823791504,
      "311": 0.9821344017982483,
      "312": 4.552834987640381,
      "313": -5.009549140930176,
      "314": -7.040884494781494,
      "315": 8.997017860412598,
      "316": 0.8262537717819214,
      "317": -6.272412300109863,
      "318": -15.942815780639648,
      "319": 4.560940265655518,
      "320": 6.5238823890686035,
      "321": 4.875588417053223,
      "322": -5.0451250076293945,
      "323": -1.1589415073394775,
      "324": -4.826753616333008,
      "325": -14.910297393798828,
      "326": 6.192493915557861,
      "327": 7.294145107269287,
      "328": -1.046377182006836,
      "329": -0.7545109987258911,
      "330": 11.59370231628418,
      "331": 2.9776763916015625,
      "332": 0.4563915431499481,
      "333": 4.677502632141113,
      "334": 1.662131905555725,
      "335": 0.450681209564209,
      "336": 5.124783039093018,
      "337": 18.52115249633789,
      "338": 12.379583358764648,
      "339": -2.0372135639190674,
      "340": 3.1964704990386963,
      "341": -5.086909770965576,
      "342": -8.616231918334961,
      "343": 7.679787635803223,
      "344": 2.137474536895752,
      "345": -2.206270694732666,
      "346": -6.510544300079346,
      "347": 23.006336212158203,
      "348": 15.990575790405273,
      "349": -7.574897766113281,
      "350": 12.478714942932129,
      "351": 5.560676574707031,
      "352": -3.7678041458129883,
      "353": 2.531254291534424,
      "354": -3.6046369075775146,
      "355": -1.8936668634414673,
      "356": -13.860068321228027,
      "357": -14.131946563720703,
      "358": -19.510005950927734,
      "359": 6.374948024749756,
      "360": 2.640082359313965,
      "361": 7.134598731994629,
      "362": 1.8848230838775635,
      "363": 1.659217357635498,
      "364": -9.242439270019531,
      "365": -8.041407585144043,
      "366": 1.8884340524673462,
      "367": -1.1277393102645874,
      "368": 2.2060539722442627,
      "369": 8.734613418579102,
      "370": -4.3556036949157715,
      "371": -3.4784371852874756,
      "372": 7.869851112365723,
      "373": -15.955485343933105,
      "374": -1.570529818534851,
      "375": 0.6826897263526917,
      "376": -2.2345218658447266,
      "377": -2.4223947525024414,
      "378": 8.472474098205566,
      "379": 1.9661699533462524,
      "380": 5.3125224113464355,
      "381": 16.07328987121582,
      "382": -19.460678100585938,
      "383": -13.65141773223877,
      "384": 1.4921417236328125,
      "385": 18.530351638793945,
      "386": 6.908160209655762,
      "387": -25.27229881286621,
      "388": 2.048851728439331,
      "389": 0.7149047255516052,
      "390": -5.6376953125,
      "391": 11.144540786743164,
      "392": -12.557241439819336,
      "393": 23.1373291015625,
      "394": 10.870594024658203,
      "395": -3.743501901626587,
      "396": 4.430738925933838,
      "397": -12.717581748962402,
      "398": 0.904718279838562,
      "399": -10.389904022216797,
      "400": -6.186805725097656,
      "401": 1.3399720191955566,
      "402": -3.1523537635803223,
      "403": 0.11185092478990555,
      "404": -0.15859030187129974,
      "405": -1.9845786094665527,
      "406": 6.55879020690918,
      "407": 3.216616630554199,
      "408": 7.966967582702637,
      "409": -1.6105029582977295,
      "410": -6.823446273803711,
      "411": -2.5708513259887695,
      "412": -0.0670865997672081,
      "413": 4.915647983551025,
      "414": 1.150442361831665,
      "415": 8.634679794311523,
      "416": 0.6617321372032166,
      "417": -4.259242534637451,
      "418": 2.803972005844116,
      "419": 2.1080174446105957,
      "420": -0.23959334194660187,
      "421": -5.633205413818359,
      "422": -4.333479404449463,
      "423": 7.221369743347168,
      "424": 6.4324188232421875,
      "425": 15.745369911193848,
      "426": -19.394725799560547,
      "427": -23.112638473510742,
      "428": 7.975004196166992,
      "429": -6.587648868560791,
      "430": 22.9258975982666,
      "431": 2.8739538192749023,
      "432": -37.643795013427734,
      "433": -11.7902250289917,
      "434": -22.870590209960938,
      "435": 45.074798583984375,
      "436": -9.939863204956055,
      "437": 31.898962020874023,
      "438": -45.600372314453125,
      "439": 30.09666633605957,
      "440": -22.92415428161621,
      "441": 0.600505530834198,
      "442": -29.887134552001953,
      "443": -38.99922561645508,
      "444": 11.456399917602539,
      "445": -1.3958618640899658,
      "446": 39.76786804199219,
      "447": -16.076995849609375,
      "448": 3.3693463802337646,
      "449": 2.484309673309326,
      "450": -8.926626205444336,
      "451": 10.930822372436523,
      "452": 5.593507766723633,
      "453": -6.251691818237305,
      "454": -13.522972106933594,
      "455": -0.10511563718318939,
      "456": 17.59271812438965,
      "457": 10.475167274475098,
      "458": 7.924980640411377,
      "459": 2.846233606338501,
      "460": -9.647042274475098,
      "461": -3.568082571029663,
      "462": -10.79580307006836,
      "463": -11.474230766296387,
      "464": 2.4910523891448975,
      "465": -11.406879425048828,
      "466": -8.119954109191895,
      "467": 1.617883324623108,
      "468": -10.206637382507324,
      "469": 0.8479649424552917,
      "470": 9.788188934326172,
      "471": 11.9380464553833,
      "472": -3.4666097164154053,
      "473": -3.053760290145874,
      "474": 1.3928120136260986,
      "475": -2.9939756393432617,
      "476": 1.0734738111495972,
      "477": 0.8463049530982971,
      "478": 3.9707906246185303,
      "479": -1.3068373203277588,
      "480": 6.55426025390625,
      "481": 6.497773170471191,
      "482": 2.529440402984619,
      "483": 10.442541122436523,
      "484": -1.9340460300445557,
      "485": 4.604062080383301,
      "486": -0.19197337329387665,
      "487": -8.624878883361816,
      "488": -10.015789985656738,
      "489": -3.407897710800171,
      "490": -0.5067629814147949,
      "491": 2.2161545753479004,
      "492": 1.147378921508789,
      "493": -1.5524168014526367,
      "494": -2.9257450103759766,
      "495": 4.7039361000061035,
      "496": 1.46445894241333,
      "497": 0.690159797668457,
      "498": 3.3627185821533203,
      "499": 6.522632598876953,
      "500": -4.768477916717529,
      "501": -0.6473398208618164,
      "502": 1.83266019821167,
      "503": 3.150531053543091,
      "504": 2.8124423027038574,
      "505": 3.392432689666748,
      "506": 18.559213638305664,
      "507": -2.9429118633270264,
      "508": -8.79341983795166,
      "509": -3.065194606781006,
      "510": 1.5201523303985596,
      "511": 8.30383014678955,
      "512": -6.739627838134766,
      "513": 2.906792402267456,
      "514": 5.77313232421875,
      "515": -1.808605670928955,
      "516": 10.649572372436523,
      "517": -3.734083414077759,
      "518": -2.1940548419952393,
      "519": 2.438112258911133,
      "520": -1.6540135145187378,
      "521": 5.923197269439697,
      "522": 3.5324769020080566,
      "523": 4.016025543212891,
      "524": 10.949121475219727,
      "525": -2.7686867713928223,
      "526": 18.95526695251465,
      "527": -4.138113021850586,
      "528": -2.598184108734131,
      "529": -1.6727334260940552,
      "530": -4.926257610321045,
      "531": 8.701621055603027,
      "532": -4.080850601196289,
      "533": -0.043968040496110916,
      "534": -2.074199914932251,
      "535": 2.479367733001709,
      "536": -0.47401705384254456,
      "537": -22.999507904052734,
      "538": -1.7828373908996582,
      "539": -9.179442405700684,
      "540": 1.4869065284729004,
      "541": -0.12857896089553833,
      "542": 0.8063425421714783,
      "543": -9.79390811920166,
      "544": 3.6434695720672607,
      "545": 8.940336227416992,
      "546": -0.6319248080253601,
      "547": -2.5415124893188477,
      "548": -10.16678524017334,
      "549": -0.5106315016746521,
      "550": -5.438106536865234,
      "551": -3.459827184677124,
      "552": -7.192846298217773,
      "553": -0.9292265176773071,
      "554": 0.6655080318450928,
      "555": 5.827960014343262,
      "556": 20.906986236572266,
      "557": -2.251504898071289,
      "558": -4.852239608764648,
      "559": -0.004634495358914137,
      "560": 3.651127815246582,
      "561": -6.512909889221191,
      "562": -6.997631072998047,
      "563": -10.203208923339844,
      "564": 5.31386661529541,
      "565": 8.850628852844238,
      "566": 4.452020168304443,
      "567": -6.695953845977783,
      "568": -0.4295214116573334,
      "569": -4.4084696769714355,
      "570": -9.705007553100586,
      "571": -1.1526426076889038,
      "572": 2.3550045490264893,
      "573": 2.41609525680542,
      "574": -5.711944580078125,
      "575": 0.25057750940322876,
      "576": -0.5846091508865356,
      "577": 5.878121852874756,
      "578": 0.7634118795394897,
      "579": -5.6775922775268555,
      "580": 2.7609822750091553,
      "581": 0.4768942892551422,
      "582": -0.6600933074951172,
      "583": 0.35044461488723755,
      "584": -5.0508503913879395,
      "585": 4.6488518714904785,
      "586": 2.436718463897705,
      "587": -0.022175079211592674,
      "588": 0.02970072813332081,
      "589": 8.480265617370605,
      "590": 0.09388530999422073,
      "591": 4.259522438049316,
      "592": -2.5060226917266846,
      "593": -1.0120505094528198,
      "594": 1.095782995223999,
      "595": 3.4933807849884033,
      "596": 0.8388267755508423,
      "597": 1.8856372833251953,
      "598": 7.5577263832092285,
      "599": -0.9027758836746216,
      "600": 3.614591598510742,
      "601": 2.3788204193115234,
      "602": -0.20070450007915497,
      "603": -2.3823487758636475,
      "604": -10.384873390197754,
      "605": 0.3320467174053192,
      "606": 6.32380485534668,
      "607": 3.0070738792419434,
      "608": 3.6761794090270996,
      "609": -9.497596740722656,
      "610": 4.1352338790893555,
      "611": 1.013316035270691,
      "612": -21.736223220825195,
      "613": 0.4749169647693634,
      "614": 2.306880474090576,
      "615": 3.9793128967285156,
      "616": 0.28532448410987854,
      "617": -12.729894638061523,
      "618": -4.3199028968811035,
      "619": 10.281768798828125,
      "620": 4.527823448181152,
      "621": -5.649620056152344,
      "622": -7.989681243896484,
      "623": -0.33808302879333496,
      "624": -10.211088180541992,
      "625": -3.438784122467041,
      "626": 3.0251500606536865,
      "627": -3.215385913848877,
      "628": 2.796997308731079,
      "629": 6.013901710510254,
      "630": -4.6190595626831055,
      "631": -3.0273423194885254,
      "632": 2.888882637023926,
      "633": 1.5997850894927979,
      "634": -3.163041591644287,
      "635": 0.4333013892173767,
      "636": 6.296858787536621,
      "637": -9.377439498901367,
      "638": 0.4330757260322571,
      "639": 12.55248737335205,
      "640": 13.041147232055664,
      "641": -1.1572760343551636,
      "642": -3.416738271713257,
      "643": -2.0297458171844482,
      "644": 5.586677551269531,
      "645": -6.360657215118408,
      "646": 1.4295518398284912,
      "647": -1.7967675924301147,
      "648": -4.181344032287598,
      "649": 0.5027029514312744
    }
  },
  "hiddenLayers": [
    {
      "inputMatrix": {
        "rows": 3,
        "columns": 25,
        "weights": {
          "0": 4.405049800872803,
          "1": -3.343381881713867,
          "2": -2.2507965564727783,
          "3": -2.099360704421997,
          "4": 3.5235092639923096,
          "5": 6.365077972412109,
          "6": 1.0705839395523071,
          "7": 1.3583735227584839,
          "8": 1.2563531398773193,
          "9": -1.6279996633529663,
          "10": -2.4031248092651367,
          "11": 8.193222045898438,
          "12": -0.7571659088134766,
          "13": -3.3909406661987305,
          "14": 1.6523088216781616,
          "15": 7.183751106262207,
          "16": 0.23061293363571167,
          "17": -3.6490869522094727,
          "18": -2.9767067432403564,
          "19": 0.8191758990287781,
          "20": 2.6517109870910645,
          "21": 1.7484257221221924,
          "22": -7.097136974334717,
          "23": -4.651558876037598,
          "24": -0.8224108815193176,
          "25": 1.5716779232025146,
          "26": 0.22339561581611633,
          "27": -2.9648401737213135,
          "28": 3.2975833415985107,
          "29": -0.19367876648902893,
          "30": -1.438432216644287,
          "31": 0.3337932825088501,
          "32": -1.636367678642273,
          "33": 1.2950383424758911,
          "34": 0.18492940068244934,
          "35": -1.3685040473937988,
          "36": 2.363706111907959,
          "37": 0.1418120414018631,
          "38": 0.411199688911438,
          "39": -0.43660011887550354,
          "40": 0.6393745541572571,
          "41": 3.772714853286743,
          "42": -0.9623605012893677,
          "43": 1.6379146575927734,
          "44": 0.7068631052970886,
          "45": 0.6470486521720886,
          "46": -1.2249058485031128,
          "47": 0.09680101275444031,
          "48": 1.069851040840149,
          "49": -0.6285375952720642,
          "50": 1.1963950395584106,
          "51": 0.4785662591457367,
          "52": 0.5745277404785156,
          "53": 0.8359118700027466,
          "54": -0.8245335221290588,
          "55": -0.6455597281455994,
          "56": -0.602361798286438,
          "57": -1.779998540878296,
          "58": 0.05441044270992279,
          "59": -1.0731624364852905,
          "60": -0.5248542428016663,
          "61": -0.00014831680164206773,
          "62": -0.2405015379190445,
          "63": 0.35448217391967773,
          "64": 0.006628287956118584,
          "65": 0.12384013086557388,
          "66": 0.631244421005249,
          "67": 0.34245240688323975,
          "68": 0.11741188913583755,
          "69": -0.5340800285339355,
          "70": 0.6458766460418701,
          "71": -0.12691646814346313,
          "72": -0.04519525170326233,
          "73": -0.7498902082443237,
          "74": -0.7209423780441284
        }
      },
      "inputHidden": {
        "rows": 3,
        "columns": 3,
        "weights": {
          "0": -24.522645950317383,
          "1": 2.0799472332000732,
          "2": -1.3067078590393066,
          "3": 1.252878189086914,
          "4": -5.806639194488525,
          "5": -21.49159049987793,
          "6": -5.961148738861084,
          "7": 9.197759628295898,
          "8": 14.914093017578125
        }
      },
      "inputBias": {
        "rows": 3,
        "columns": 1,
        "weights": {
          "0": -2.309680700302124,
          "1": 0.029290031641721725,
          "2": 1.8051244020462036
        }
      },
      "forgetMatrix": {
        "rows": 3,
        "columns": 25,
        "weights": {
          "0": 1.4874217510223389,
          "1": 4.206131935119629,
          "2": -2.531003952026367,
          "3": 2.5574934482574463,
          "4": 0.41952407360076904,
          "5": 0.9873718023300171,
          "6": 0.9290522933006287,
          "7": 4.69187593460083,
          "8": -0.9352158904075623,
          "9": 1.0426843166351318,
          "10": -0.2796992063522339,
          "11": 1.1296472549438477,
          "12": 0.836362898349762,
          "13": -0.7732054591178894,
          "14": -3.4592204093933105,
          "15": 1.6700667142868042,
          "16": -0.5675201416015625,
          "17": -1.4732389450073242,
          "18": 1.8662434816360474,
          "19": -2.7483842372894287,
          "20": -1.8530762195587158,
          "21": -0.8798774480819702,
          "22": 0.003254505107179284,
          "23": -4.030610084533691,
          "24": -0.5119850039482117,
          "25": -3.6982812881469727,
          "26": 4.187572956085205,
          "27": -0.5978900790214539,
          "28": 2.468533992767334,
          "29": 3.3146560192108154,
          "30": 1.561222791671753,
          "31": -1.8996220827102661,
          "32": -4.7005414962768555,
          "33": -1.1456067562103271,
          "34": 1.4252530336380005,
          "35": 2.5637614727020264,
          "36": 4.199050426483154,
          "37": -1.3144869804382324,
          "38": -1.1187248229980469,
          "39": 1.8118716478347778,
          "40": -5.097406387329102,
          "41": -1.5817838907241821,
          "42": -1.0286301374435425,
          "43": -0.3506939113140106,
          "44": -4.533681392669678,
          "45": -1.6750754117965698,
          "46": -1.3818506002426147,
          "47": 1.1709386110305786,
          "48": -2.0025219917297363,
          "49": 0.3179849088191986,
          "50": 1.6690475940704346,
          "51": 3.5850424766540527,
          "52": -1.2741587162017822,
          "53": -0.1899893432855606,
          "54": -7.837466716766357,
          "55": -2.989962100982666,
          "56": 4.647083282470703,
          "57": -4.759061336517334,
          "58": 4.949979782104492,
          "59": -5.132843494415283,
          "60": -1.2358996868133545,
          "61": 1.603123664855957,
          "62": 0.16982488334178925,
          "63": 0.3297940194606781,
          "64": -1.2983360290527344,
          "65": 4.930239677429199,
          "66": -9.72065544128418,
          "67": -0.5014582276344299,
          "68": -0.48284369707107544,
          "69": 5.533046722412109,
          "70": 1.6699390411376953,
          "71": -4.610062122344971,
          "72": 0.4120528995990753,
          "73": 0.27220985293388367,
          "74": -1.5249812602996826
        }
      },
      "forgetHidden": {
        "rows": 3,
        "columns": 3,
        "weights": {
          "0": -18.404272079467773,
          "1": -1.1949042081832886,
          "2": -0.3327185809612274,
          "3": -20.529369354248047,
          "4": -15.246848106384277,
          "5": 3.4984354972839355,
          "6": -2.508194923400879,
          "7": -26.615341186523438,
          "8": 4.826513290405273
        }
      },
      "forgetBias": {
        "rows": 3,
        "columns": 1,
        "weights": {
          "0": 0,
          "1": 0,
          "2": 0
        }
      },
      "outputMatrix": {
        "rows": 3,
        "columns": 25,
        "weights": {
          "0": 3.702171802520752,
          "1": -0.2898518741130829,
          "2": 1.531217098236084,
          "3": 3.248680353164673,
          "4": -0.3668217658996582,
          "5": 1.9851816892623901,
          "6": 1.0792430639266968,
          "7": 1.1851948499679565,
          "8": -2.949723720550537,
          "9": -2.5880990028381348,
          "10": 2.8851640224456787,
          "11": 4.55656099319458,
          "12": -0.9358208179473877,
          "13": -2.439704418182373,
          "14": 3.502131938934326,
          "15": 3.201716899871826,
          "16": -4.113392353057861,
          "17": 0.7212634086608887,
          "18": -1.527248740196228,
          "19": -2.289731025695801,
          "20": 0.8868117928504944,
          "21": 0.9566437005996704,
          "22": -0.7241861820220947,
          "23": -1.0152764320373535,
          "24": 0.4229399859905243,
          "25": 2.792140245437622,
          "26": 0.3452112078666687,
          "27": 2.256438732147217,
          "28": 0.7440719604492188,
          "29": 0.6240352392196655,
          "30": 2.968656301498413,
          "31": -0.03617248684167862,
          "32": -2.7789957523345947,
          "33": -0.5761957168579102,
          "34": 0.9811404943466187,
          "35": -0.5988861918449402,
          "36": 1.2307789325714111,
          "37": 0.46097397804260254,
          "38": 0.3580544888973236,
          "39": -2.524632453918457,
          "40": -1.1239522695541382,
          "41": 0.3007044792175293,
          "42": -1.0794333219528198,
          "43": -0.1036430224776268,
          "44": 1.5820010900497437,
          "45": 1.068899154663086,
          "46": 0.02778344415128231,
          "47": -2.0559935569763184,
          "48": 1.4099221229553223,
          "49": 0.3881661593914032,
          "50": 0.39866968989372253,
          "51": 0.19163022935390472,
          "52": 0.8593482375144958,
          "53": 0.39523670077323914,
          "54": -0.026332957670092583,
          "55": 1.1812007427215576,
          "56": -0.03440743312239647,
          "57": 1.2761977910995483,
          "58": 0.0389765165746212,
          "59": -0.0844212993979454,
          "60": 0.46371039748191833,
          "61": 0.1959497481584549,
          "62": 0.12052913755178452,
          "63": 0.031456056982278824,
          "64": -0.4517005980014801,
          "65": -0.6572096943855286,
          "66": 0.1747005730867386,
          "67": -0.557586669921875,
          "68": 0.09104707092046738,
          "69": 0.33464109897613525,
          "70": 0.018901372328400612,
          "71": 0.4283042848110199,
          "72": -1.2572661638259888,
          "73": -0.38597333431243896,
          "74": -0.19618669152259827
        }
      },
      "outputHidden": {
        "rows": 3,
        "columns": 3,
        "weights": {
          "0": -4.4738664627075195,
          "1": -6.178689002990723,
          "2": 7.026235580444336,
          "3": -5.404373645782471,
          "4": -10.374455451965332,
          "5": -12.857208251953125,
          "6": 6.342807292938232,
          "7": 8.19518756866455,
          "8": -22.754148483276367
        }
      },
      "outputBias": {
        "rows": 3,
        "columns": 1,
        "weights": {
          "0": -0.7196404933929443,
          "1": -0.010646829381585121,
          "2": 4.145529270172119
        }
      },
      "cellActivationMatrix": {
        "rows": 3,
        "columns": 25,
        "weights": {
          "0": -2.6369783878326416,
          "1": -0.6067448854446411,
          "2": 1.5580459833145142,
          "3": 2.377516031265259,
          "4": 1.6485031843185425,
          "5": -1.7318377494812012,
          "6": -0.6959702372550964,
          "7": -1.0931060314178467,
          "8": -2.0051486492156982,
          "9": 2.9843859672546387,
          "10": -1.7731356620788574,
          "11": -3.4084670543670654,
          "12": 1.1918612718582153,
          "13": -0.9609169960021973,
          "14": -2.1448211669921875,
          "15": -0.9581126570701599,
          "16": -2.218959331512451,
          "17": -0.21853239834308624,
          "18": 0.03931797668337822,
          "19": -1.9140223264694214,
          "20": -1.101479172706604,
          "21": -1.5147430896759033,
          "22": 0.2637803554534912,
          "23": 0.6523696780204773,
          "24": 0.4172026515007019,
          "25": 2.331676721572876,
          "26": -0.6811012625694275,
          "27": 2.612581491470337,
          "28": 1.923850655555725,
          "29": 0.44179776310920715,
          "30": -0.3269433081150055,
          "31": -0.1882900446653366,
          "32": 1.4639939069747925,
          "33": 0.9254908561706543,
          "34": 0.6879055500030518,
          "35": 2.203284740447998,
          "36": 3.1474597454071045,
          "37": -0.009544896893203259,
          "38": -1.0668061971664429,
          "39": -0.7976366877555847,
          "40": -0.37825459241867065,
          "41": 1.0694307088851929,
          "42": 0.15604786574840546,
          "43": 0.3836672008037567,
          "44": 0.2154209166765213,
          "45": 1.013567566871643,
          "46": 1.467746615409851,
          "47": -0.38902971148490906,
          "48": 1.1298667192459106,
          "49": -0.12421347945928574,
          "50": -0.8271548748016357,
          "51": 0.14338907599449158,
          "52": 0.05375824496150017,
          "53": -1.1814912557601929,
          "54": -0.035335831344127655,
          "55": -1.1563228368759155,
          "56": 1.0381842851638794,
          "57": 1.1518325805664062,
          "58": -0.4684588611125946,
          "59": -0.08939450234174728,
          "60": 0.24619650840759277,
          "61": -0.29935508966445923,
          "62": 0.7944475412368774,
          "63": 0.07191967219114304,
          "64": 0.06695203483104706,
          "65": -0.474225789308548,
          "66": 0.17149397730827332,
          "67": 0.7385888695716858,
          "68": 0.3850248456001282,
          "69": 2.1047606468200684,
          "70": -0.20498599112033844,
          "71": 1.7604866027832031,
          "72": 1.497947335243225,
          "73": 0.1266934722661972,
          "74": -0.461969256401062
        }
      },
      "cellActivationHidden": {
        "rows": 3,
        "columns": 3,
        "weights": {
          "0": 6.66209077835083,
          "1": 3.373680830001831,
          "2": 1.1503164768218994,
          "3": -2.901595115661621,
          "4": 7.367308139801025,
          "5": -22.733760833740234,
          "6": -2.2452683448791504,
          "7": -2.6960580348968506,
          "8": -2.992525339126587
        }
      },
      "cellActivationBias": {
        "rows": 3,
        "columns": 1,
        "weights": {
          "0": -1.6847409009933472,
          "1": -5.800175666809082,
          "2": -1.7478331327438354
        }
      }
    }
  ],
  "outputConnector": {
    "rows": 26,
    "columns": 3,
    "weights": {
      "0": 39.65617752075195,
      "1": -65.89457702636719,
      "2": 38.04795837402344,
      "3": 341.8064880371094,
      "4": -286.30859375,
      "5": 356.53155517578125,
      "6": -32.01234817504883,
      "7": 69.39952087402344,
      "8": -33.35829162597656,
      "9": -32.53718566894531,
      "10": 60.60167694091797,
      "11": -36.336021423339844,
      "12": -29.160499572753906,
      "13": 68.96138763427734,
      "14": -30.524913787841797,
      "15": -32.57368087768555,
      "16": 66.23934936523438,
      "17": -34.71843719482422,
      "18": -33.551231384277344,
      "19": 57.076602935791016,
      "20": -36.725616455078125,
      "21": -35.99614715576172,
      "22": 49.01829528808594,
      "23": -38.79800796508789,
      "24": -21.32903480529785,
      "25": 30.752628326416016,
      "26": -25.40055274963379,
      "27": -34.30673599243164,
      "28": 48.29020690917969,
      "29": -40.60568618774414,
      "30": 19.286714553833008,
      "31": 20.4792537689209,
      "32": -16.017425537109375,
      "33": -16.25385093688965,
      "34": 25.758302688598633,
      "35": -24.852876663208008,
      "36": -30.405487060546875,
      "37": 61.76005554199219,
      "38": -31.611289978027344,
      "39": -28.515399932861328,
      "40": 36.46407699584961,
      "41": -49.35148239135742,
      "42": -35.292755126953125,
      "43": 54.45158004760742,
      "44": -37.57972717285156,
      "45": -42.069976806640625,
      "46": 39.36469268798828,
      "47": -35.04582977294922,
      "48": -27.998748779296875,
      "49": 34.548580169677734,
      "50": -48.84674072265625,
      "51": -39.238162994384766,
      "52": 36.63384246826172,
      "53": -38.88703918457031,
      "54": 25.93871307373047,
      "55": -44.12440490722656,
      "56": 18.4173641204834,
      "57": 203.54331970214844,
      "58": -148.857177734375,
      "59": 184.85272216796875,
      "60": -28.398677825927734,
      "61": 28.442665100097656,
      "62": -47.04692077636719,
      "63": 10.947484016418457,
      "64": -37.688209533691406,
      "65": 3.864265203475952,
      "66": 52.258628845214844,
      "67": -83.70360565185547,
      "68": 45.0528678894043,
      "69": -41.82679748535156,
      "70": 44.02296447753906,
      "71": -35.117706298828125,
      "72": 76.26255798339844,
      "73": -58.53366470336914,
      "74": 142.0534210205078,
      "75": -16.385900497436523,
      "76": 24.608850479125977,
      "77": -22.296707153320312
    }
  },
  "output": {
    "rows": 26,
    "columns": 1,
    "weights": {
      "0": -50.35544204711914,
      "1": 178.62437438964844,
      "2": -144.1952667236328,
      "3": -140.32794189453125,
      "4": -143.33624267578125,
      "5": -143.1498260498047,
      "6": -138.00094604492188,
      "7": -135.2337646484375,
      "8": -107.73657989501953,
      "9": -134.9564971923828,
      "10": -108.59075164794922,
      "11": -103.97425079345703,
      "12": -139.33615112304688,
      "13": -133.37742614746094,
      "14": -137.23721313476562,
      "15": -130.6539764404297,
      "16": -132.15176391601562,
      "17": -130.02316284179688,
      "18": -64.39120483398438,
      "19": 55.692745208740234,
      "20": -127.11909484863281,
      "21": -77.08229064941406,
      "22": -44.60565948486328,
      "23": -132.4499053955078,
      "24": -26.19318199157715,
      "25": -102.59552001953125
    }
  }
}